27 10
PUSH1 -0.011748444 0.0027998402 0.051751006 0.090235025 -0.09452426 -0.07392051 0.07780784 0.09692979 -0.05996306 -0.035107203
DUP2 0.07140692 -0.015273407 -0.045720752 0.06531448 -0.04976487 -0.019182282 0.03422336 0.013524379 -0.08679863 -0.09360238
ADD 0.071661755 0.050844323 0.06741437 0.007740067 0.06298544 -0.034743253 -0.006490712 0.05961069 -0.07759287 -0.03911444
MSTORE -0.0767389 -0.009105789 0.0952882 -0.0731448 -0.023367994 -0.019756433 0.08361044 -0.057752263 -0.0017629548 -0.046423733
SWAP1 -0.09878065 0.050240472 -0.08830376 -0.044205915 -0.00083345245 -0.0036544017 -0.07195438 0.09925974 0.04649555 0.09382157
POP -0.08323277 0.044695705 -0.04150686 0.008369814 0.083895326 -0.045266796 0.050421994 -0.06514293 -0.03905922 0.095218375
DUP1 -0.018761035 0.0030490065 -0.041417412 -0.076849125 -0.016071096 0.023744604 -0.0017872693 0.05888201 -0.03229371 0.024033204
JUMPDEST 0.052640263 0.08361827 -0.015102942 -0.092237696 0.043566678 0.0053955205 0.07731173 -0.0064711603 -0.028368173 -0.08622618
JUMP -0.011483021 0.028470622 0.05419815 0.07073345 -0.057878826 0.017392475 0.066661015 -0.044682056 -0.035310045 0.06973557
DUP3 0.0137299085 0.0019734248 0.03457671 0.0020499995 0.09638707 0.050054774 -0.08465693 -0.06804206 0.0058019552 0.06546813
MLOAD -0.08858358 0.036728285 0.051145658 0.057313148 0.07391538 -0.062392548 0.0158563 0.06326251 -0.031882208 -0.060084194
AND -0.0052601285 -0.08362382 -0.05612976 0.07115978 0.033305015 0.071919054 0.07043378 0.076698974 -0.039333925 -0.0047554863
PUSH8 0.022987071 -0.045132704 0.08391661 -0.09828683 0.06732464 0.028726079 -0.04792707 0.04515234 -0.018725498 0.06720842
MUL 0.098182455 -0.043774217 -0.006567246 -0.057367984 0.03813871 0.027610024 0.07122061 0.06242054 0.09402958 0.093518525
CODESIZE 0.07743172 -0.06962472 -0.09174047 -0.0035568106 -0.031242862 0.07834196 0.062170073 -0.0138064595 0.0131436465 0.018945107
DUP4 0.07676727 -0.09510553 -0.0021274595 0.03456302 -0.009671531 0.08356837 0.092748396 0.06678093 -0.008895414 0.077988915
CODECOPY -0.08652609 0.032089807 -0.046741806 -0.050763384 0.03543777 0.05328699 0.08032295 -0.05626284 0.0724669 0.06705918
SWAP2 -0.038421176 -0.08751184 0.05412764 0.06511569 -0.008209307 -0.06739065 -0.06815429 -0.02341926 0.04946558 -0.03582269
MISSING -0.09496154 0.038212743 0.047895268 -0.06445559 0.011849326 -0.020900585 0.0029497808 -0.09692989 0.02493417 -0.046417076
PUSH20 0.010160717 -0.015827365 0.02165889 -0.07890784 -0.027756613 0.026295664 0.05546356 -0.022385567 -0.09639791 0.045477036
STOP 5.290418e-06 0.030835694 -0.06823211 -0.013190307 0.07600754 0.072845474 -0.03453762 0.027933193 -0.08480653 0.062467635
PUSH2 -0.046851423 -0.031597324 0.092805825 0.008559361 0.07481429 -0.060868885 0.05262378 0.099989615 -0.08535552 -0.051273193
LOG1 -0.07154243 -0.048691437 -0.03806549 -0.08537969 0.07953052 -0.04863385 0.08619999 0.053833015 -0.06680714 0.04026224
PUSH6 0.053379044 -0.07421155 -0.0741977 -0.02461846 -0.08665706 -0.016296519 -0.0011987325 0.034586836 0.012526274 -0.007955403
SHA3 -0.057292916 0.017426405 -0.009319005 0.067775846 0.03976672 0.045095246 0.01693663 -0.025501316 -0.045481488 -0.009428822
REVERT 0.013098567 -0.026499597 -0.071337074 -0.07793793 -0.091588885 -0.059588052 -0.015882563 -0.041548092 -0.06646715 -0.03627001
PUSH27 0.042118233 -0.03750342 0.08326173 0.015142565 -0.072326556 0.09438735 0.07783424 0.055884805 -0.06950978 0.058967102
